<!--
  ~ Copyright 2011 JBoss Inc
  ~
  ~   Licensed under the Apache License, Version 2.0 (the "License");
  ~   you may not use this file except in compliance with the License.
  ~   You may obtain a copy of the License at
  ~
  ~         http://www.apache.org/licenses/LICENSE-2.0
  ~
  ~   Unless required by applicable law or agreed to in writing, software
  ~   distributed under the License is distributed on an "AS IS" BASIS,
  ~   WITHOUT WARRANTIES OR CONDITIONS OF ANY KIND, either express or implied.
  ~   See the License for the specific language governing permissions and
  ~   limitations under the License.
  -->

<PMML version="4.0" xsi:schemaLocation="http://www.dmg.org/PMML-4_0 http://www.dmg.org/v4-0/pmml-4-0.xsd" xmlns="http://www.dmg.org/PMML-4_0" xmlns:xsi="http://www.w3.org/2001/XMLSchema-instance">
  <Header description="Mock Diabetes Risk Prediction Model" copyright="none">
  </Header>

  <DataDictionary numberOfFields="3">
    <DataField dataType="integer" name="candies" optype="continuous" displayName="Number of Candies a Day">
      <Interval closure="closedClosed" leftMargin="0" rightMargin="100" />
    </DataField>
    <DataField dataType="integer" name="apples" optype="continuous" displayName="Number of Apples a Day">
      <Interval closure="closedClosed" leftMargin="0" rightMargin="1" />
    </DataField>
    <DataField dataType="double" name="diabetesRisk" optype="continuous" displayName="Diabetes Risk Factor"/>
  </DataDictionary>


  <NeuralNetwork activationFunction="identity" algorithmName="neuralNetwork" functionName="regression" modelName="MockDiabetes">
    <MiningSchema>
      <MiningField name="candies"/>
      <MiningField name="apples"/>
      <MiningField name="diabetesRisk" usageType="predicted"/>
    </MiningSchema>
    <Output>
      <OutputField name="Diabetes" targetField="diabetesRisk"/>
    </Output>

    <NeuralInputs>

      <NeuralInput id="0">
        <DerivedField dataType="integer" optype="continuous">
          <FieldRef field="candies"/>
        </DerivedField>
      </NeuralInput>
      <NeuralInput id="1">
        <DerivedField dataType="integer" optype="continuous">
          <FieldRef field="apples"/>
        </DerivedField>
      </NeuralInput>

    </NeuralInputs>


    <NeuralLayer>
      <Neuron bias="0" id="2">
        <Con from="0" weight="0.005"/>
      </Neuron>
    </NeuralLayer>
    <NeuralLayer>
      <Neuron bias="0.0" id="3">
        <Con from="1" weight="0.5"/>
      </Neuron>
    </NeuralLayer>



    <NeuralOutputs>
      <NeuralOutput outputNeuron="4">
        <DerivedField dataType="double" optype="continuous">
          <FieldRef field="diabetesRisk"/>
        </DerivedField>
      </NeuralOutput>
    </NeuralOutputs>

  </NeuralNetwork>
</PMML>